digraph Tree {
node [shape=box, style="filled, rounded", color="black", fontname=helvetica] ;
edge [fontname=helvetica] ;
0 [label="sepal length (cm) <= 5.45\ngini = 0.66\nsamples = 93\nvalue = [45, 57, 48]\nclass = versicolor", fillcolor="#eefdf4"] ;
1 [label="petal length (cm) <= 2.45\ngini = 0.2\nsamples = 28\nvalue = [41, 4, 1]\nclass = setosa", fillcolor="#e89051"] ;
0 -> 1 [labeldistance=2.5, labelangle=45, headlabel="True"] ;
2 [label="gini = 0.0\nsamples = 24\nvalue = [41, 0, 0]\nclass = setosa", fillcolor="#e58139"] ;
1 -> 2 ;
3 [label="petal width (cm) <= 1.4\ngini = 0.32\nsamples = 4\nvalue = [0, 4, 1]\nclass = versicolor", fillcolor="#6aeca0"] ;
1 -> 3 ;
4 [label="gini = 0.0\nsamples = 3\nvalue = [0, 4, 0]\nclass = versicolor", fillcolor="#39e581"] ;
3 -> 4 ;
5 [label="gini = 0.0\nsamples = 1\nvalue = [0, 0, 1]\nclass = virginica", fillcolor="#8139e5"] ;
3 -> 5 ;
6 [label="petal length (cm) <= 4.95\ngini = 0.53\nsamples = 65\nvalue = [4, 53, 47]\nclass = versicolor", fillcolor="#eafcf2"] ;
0 -> 6 [labeldistance=2.5, labelangle=-45, headlabel="False"] ;
7 [label="sepal width (cm) <= 3.45\ngini = 0.27\nsamples = 33\nvalue = [4, 49, 5]\nclass = versicolor", fillcolor="#5be996"] ;
6 -> 7 ;
8 [label="sepal width (cm) <= 2.75\ngini = 0.17\nsamples = 31\nvalue = [0, 49, 5]\nclass = versicolor", fillcolor="#4de88e"] ;
7 -> 8 ;
9 [label="gini = 0.0\nsamples = 11\nvalue = [0, 20, 0]\nclass = versicolor", fillcolor="#39e581"] ;
8 -> 9 ;
10 [label="petal width (cm) <= 1.7\ngini = 0.25\nsamples = 20\nvalue = [0, 29, 5]\nclass = versicolor", fillcolor="#5be997"] ;
8 -> 10 ;
11 [label="gini = 0.0\nsamples = 17\nvalue = [0, 29, 0]\nclass = versicolor", fillcolor="#39e581"] ;
10 -> 11 ;
12 [label="gini = 0.0\nsamples = 3\nvalue = [0, 0, 5]\nclass = virginica", fillcolor="#8139e5"] ;
10 -> 12 ;
13 [label="gini = 0.0\nsamples = 2\nvalue = [4, 0, 0]\nclass = setosa", fillcolor="#e58139"] ;
7 -> 13 ;
14 [label="petal width (cm) <= 1.75\ngini = 0.16\nsamples = 32\nvalue = [0, 4, 42]\nclass = virginica", fillcolor="#8d4ce7"] ;
6 -> 14 ;
15 [label="sepal width (cm) <= 2.65\ngini = 0.5\nsamples = 6\nvalue = [0, 4, 4]\nclass = versicolor", fillcolor="#ffffff"] ;
14 -> 15 ;
16 [label="gini = 0.0\nsamples = 2\nvalue = [0, 0, 2]\nclass = virginica", fillcolor="#8139e5"] ;
15 -> 16 ;
17 [label="sepal width (cm) <= 2.75\ngini = 0.44\nsamples = 4\nvalue = [0, 4, 2]\nclass = versicolor", fillcolor="#9cf2c0"] ;
15 -> 17 ;
18 [label="gini = 0.0\nsamples = 1\nvalue = [0, 3, 0]\nclass = versicolor", fillcolor="#39e581"] ;
17 -> 18 ;
19 [label="petal width (cm) <= 1.65\ngini = 0.44\nsamples = 3\nvalue = [0, 1, 2]\nclass = virginica", fillcolor="#c09cf2"] ;
17 -> 19 ;
20 [label="gini = 0.0\nsamples = 2\nvalue = [0, 0, 2]\nclass = virginica", fillcolor="#8139e5"] ;
19 -> 20 ;
21 [label="gini = 0.0\nsamples = 1\nvalue = [0, 1, 0]\nclass = versicolor", fillcolor="#39e581"] ;
19 -> 21 ;
22 [label="gini = 0.0\nsamples = 26\nvalue = [0, 0, 38]\nclass = virginica", fillcolor="#8139e5"] ;
14 -> 22 ;
}